[
  { "nodeid": 0, "depth": 0, "split": "f1", "split_condition": 62.2012863, "yes": 1, "no": 2, "missing": 2 , "children": [
    { "nodeid": 1, "depth": 1, "split": "f2", "split_condition": 53.5307655, "yes": 3, "no": 4, "missing": 4 , "children": [
      { "nodeid": 3, "depth": 2, "split": "f1", "split_condition": 13.6014709, "yes": 7, "no": 8, "missing": 8 , "children": [
        { "nodeid": 7, "leaf": 0.349118799 }, 
        { "nodeid": 8, "leaf": 0.206115261 }
      ]}, 
      { "nodeid": 4, "leaf": -0.168487087 }
    ]}, 
    { "nodeid": 2, "depth": 1, "split": "f7", "split_condition": 59.439045, "yes": 5, "no": 6, "missing": 6 , "children": [
      { "nodeid": 5, "depth": 2, "split": "f3", "split_condition": 34, "yes": 9, "no": 10, "missing": 10 , "children": [
        { "nodeid": 9, "leaf": -0.279544026 }, 
        { "nodeid": 10, "leaf": -0.0499623232 }
      ]}, 
      { "nodeid": 6, "depth": 2, "split": "f7", "split_condition": 93.6055527, "yes": 11, "no": 12, "missing": 12 , "children": [
        { "nodeid": 11, "leaf": 0.0564458594 }, 
        { "nodeid": 12, "leaf": -0.15779388 }
      ]}
    ]}
  ]},
  { "nodeid": 0, "depth": 0, "split": "f1", "split_condition": 59.0931473, "yes": 1, "no": 2, "missing": 2 , "children": [
    { "nodeid": 1, "depth": 1, "split": "f4", "split_condition": -9, "yes": 3, "no": 4, "missing": 4 , "children": [
      { "nodeid": 3, "depth": 2, "split": "f1", "split_condition": 38.5875626, "yes": 7, "no": 8, "missing": 8 , "children": [
        { "nodeid": 7, "leaf": -0.101647966 }, 
        { "nodeid": 8, "leaf": 0.101707168 }
      ]}, 
      { "nodeid": 4, "depth": 2, "split": "f4", "split_condition": 7, "yes": 9, "no": 10, "missing": 10 , "children": [
        { "nodeid": 9, "leaf": 0.286555707 }, 
        { "nodeid": 10, "leaf": 0.112045772 }
      ]}
    ]}, 
    { "nodeid": 2, "depth": 1, "split": "f5", "split_condition": 79, "yes": 5, "no": 6, "missing": 6 , "children": [
      { "nodeid": 5, "depth": 2, "split": "f21", "split_condition": 1, "yes": 11, "no": 12, "missing": 12 , "children": [
        { "nodeid": 11, "leaf": -0.105721325 }, 
        { "nodeid": 12, "leaf": 0.0681181625 }
      ]}, 
      { "nodeid": 6, "leaf": -0.399948806 }
    ]}
  ]},
  { "nodeid": 0, "depth": 0, "split": "f1", "split_condition": 59.0931473, "yes": 1, "no": 2, "missing": 2 , "children": [
    { "nodeid": 1, "depth": 1, "split": "f4", "split_condition": -10, "yes": 3, "no": 4, "missing": 4 , "children": [
      { "nodeid": 3, "depth": 2, "split": "f8", "split_condition": 7.21110249, "yes": 7, "no": 8, "missing": 8 , "children": [
        { "nodeid": 7, "leaf": 0.0423187576 }, 
        { "nodeid": 8, "leaf": -0.14020279 }
      ]}, 
      { "nodeid": 4, "depth": 2, "split": "f4", "split_condition": 7, "yes": 9, "no": 10, "missing": 10 , "children": [
        { "nodeid": 9, "leaf": 0.260298669 }, 
        { "nodeid": 10, "leaf": 0.0786852986 }
      ]}
    ]}, 
    { "nodeid": 2, "depth": 1, "split": "f21", "split_condition": 1, "yes": 5, "no": 6, "missing": 6 , "children": [
      { "nodeid": 5, "depth": 2, "split": "f22", "split_condition": 1, "yes": 11, "no": 12, "missing": 12 , "children": [
        { "nodeid": 11, "leaf": -0.195464358 }, 
        { "nodeid": 12, "leaf": -0.00429814309 }
      ]}, 
      { "nodeid": 6, "depth": 2, "split": "f5", "split_condition": -41, "yes": 13, "no": 14, "missing": 14 , "children": [
        { "nodeid": 13, "leaf": 0.19765003 }, 
        { "nodeid": 14, "leaf": 0.00779132359 }
      ]}
    ]}
  ]},
  { "nodeid": 0, "depth": 0, "split": "f7", "split_condition": 79.0569382, "yes": 1, "no": 2, "missing": 2 , "children": [
    { "nodeid": 1, "depth": 1, "split": "f5", "split_condition": -64, "yes": 3, "no": 4, "missing": 4 , "children": [
      { "nodeid": 3, "depth": 2, "split": "f4", "split_condition": 8, "yes": 7, "no": 8, "missing": 8 , "children": [
        { "nodeid": 7, "leaf": -0.080771178 }, 
        { "nodeid": 8, "leaf": -0.237858206 }
      ]}, 
      { "nodeid": 4, "depth": 2, "split": "f5", "split_condition": 78, "yes": 9, "no": 10, "missing": 10 , "children": [
        { "nodeid": 9, "leaf": 0.0311164893 }, 
        { "nodeid": 10, "leaf": -0.249899104 }
      ]}
    ]}, 
    { "nodeid": 2, "depth": 1, "split": "f4", "split_condition": 31, "yes": 5, "no": 6, "missing": 6 , "children": [
      { "nodeid": 5, "depth": 2, "split": "f4", "split_condition": -32, "yes": 11, "no": 12, "missing": 12 , "children": [
        { "nodeid": 11, "leaf": -0.020538738 }, 
        { "nodeid": 12, "leaf": 0.147191405 }
      ]}, 
      { "nodeid": 6, "leaf": -0.018015191 }
    ]}
  ]},
  { "nodeid": 0, "depth": 0, "split": "f29", "split_condition": 1, "yes": 1, "no": 2, "missing": 2 , "children": [
    { "nodeid": 1, "depth": 1, "split": "f6", "split_condition": 22, "yes": 3, "no": 4, "missing": 4 , "children": [
      { "nodeid": 3, "depth": 2, "split": "f5", "split_condition": 65, "yes": 5, "no": 6, "missing": 6 , "children": [
        { "nodeid": 5, "leaf": 0.0971368924 }, 
        { "nodeid": 6, "leaf": -0.0256429054 }
      ]}, 
      { "nodeid": 4, "depth": 2, "split": "f22", "split_condition": 1, "yes": 7, "no": 8, "missing": 8 , "children": [
        { "nodeid": 7, "leaf": -0.150591537 }, 
        { "nodeid": 8, "leaf": 0.0336236656 }
      ]}
    ]}, 
    { "nodeid": 2, "leaf": -0.164185315 }
  ]},
  { "nodeid": 0, "depth": 0, "split": "f1", "split_condition": 59.0931473, "yes": 1, "no": 2, "missing": 2 , "children": [
    { "nodeid": 1, "depth": 1, "split": "f2", "split_condition": 53.5307655, "yes": 3, "no": 4, "missing": 4 , "children": [
      { "nodeid": 3, "depth": 2, "split": "f2", "split_condition": 11.0702028, "yes": 7, "no": 8, "missing": 8 , "children": [
        { "nodeid": 7, "leaf": 0.255999267 }, 
        { "nodeid": 8, "leaf": 0.104697071 }
      ]}, 
      { "nodeid": 4, "leaf": -0.182836846 }
    ]}, 
    { "nodeid": 2, "depth": 1, "split": "f8", "split_condition": 13.7679176, "yes": 5, "no": 6, "missing": 6 , "children": [
      { "nodeid": 5, "depth": 2, "split": "f8", "split_condition": 2.55414724, "yes": 9, "no": 10, "missing": 10 , "children": [
        { "nodeid": 9, "leaf": 0.0018456612 }, 
        { "nodeid": 10, "leaf": -0.124528632 }
      ]}, 
      { "nodeid": 6, "leaf": 0.0777859166 }
    ]}
  ]},
  { "nodeid": 0, "depth": 0, "split": "f1", "split_condition": 59.7745781, "yes": 1, "no": 2, "missing": 2 , "children": [
    { "nodeid": 1, "depth": 1, "split": "f2", "split_condition": 53.5307655, "yes": 3, "no": 4, "missing": 4 , "children": [
      { "nodeid": 3, "depth": 2, "split": "f2", "split_condition": 11.0702028, "yes": 7, "no": 8, "missing": 8 , "children": [
        { "nodeid": 7, "leaf": 0.261937201 }, 
        { "nodeid": 8, "leaf": 0.133126542 }
      ]}, 
      { "nodeid": 4, "leaf": -0.13074483 }
    ]}, 
    { "nodeid": 2, "depth": 1, "split": "f2", "split_condition": 1.8087393, "yes": 5, "no": 6, "missing": 6 , "children": [
      { "nodeid": 5, "leaf": -0.23544094 }, 
      { "nodeid": 6, "depth": 2, "split": "f5", "split_condition": 72, "yes": 9, "no": 10, "missing": 10 , "children": [
        { "nodeid": 9, "leaf": 0.00490570394 }, 
        { "nodeid": 10, "leaf": -0.139964283 }
      ]}
    ]}
  ]},
  { "nodeid": 0, "depth": 0, "split": "f7", "split_condition": 69.8927765, "yes": 1, "no": 2, "missing": 2 , "children": [
    { "nodeid": 1, "depth": 1, "split": "f3", "split_condition": 21, "yes": 3, "no": 4, "missing": 4 , "children": [
      { "nodeid": 3, "depth": 2, "split": "f4", "split_condition": 28, "yes": 7, "no": 8, "missing": 8 , "children": [
        { "nodeid": 7, "leaf": -0.0400712602 }, 
        { "nodeid": 8, "leaf": -0.216928124 }
      ]}, 
      { "nodeid": 4, "depth": 2, "split": "f3", "split_condition": 49, "yes": 9, "no": 10, "missing": 10 , "children": [
        { "nodeid": 9, "leaf": 0.161230698 }, 
        { "nodeid": 10, "leaf": -0.0267205238 }
      ]}
    ]}, 
    { "nodeid": 2, "depth": 1, "split": "f22", "split_condition": 1, "yes": 5, "no": 6, "missing": 6 , "children": [
      { "nodeid": 5, "depth": 2, "split": "f5", "split_condition": 54, "yes": 11, "no": 12, "missing": 12 , "children": [
        { "nodeid": 11, "leaf": 0.0451087207 }, 
        { "nodeid": 12, "leaf": -0.0813688412 }
      ]}, 
      { "nodeid": 6, "depth": 2, "split": "f7", "split_condition": 115.156418, "yes": 13, "no": 14, "missing": 14 , "children": [
        { "nodeid": 13, "leaf": 0.236244425 }, 
        { "nodeid": 14, "leaf": 0.069912225 }
      ]}
    ]}
  ]},
  { "nodeid": 0, "depth": 0, "split": "f20", "split_condition": 1, "yes": 1, "no": 2, "missing": 2 , "children": [
    { "nodeid": 1, "depth": 1, "split": "f7", "split_condition": 112.605507, "yes": 3, "no": 4, "missing": 4 , "children": [
      { "nodeid": 3, "depth": 2, "split": "f28", "split_condition": 1, "yes": 5, "no": 6, "missing": 6 , "children": [
        { "nodeid": 5, "leaf": -0.179804355 }, 
        { "nodeid": 6, "leaf": 0.0070184432 }
      ]}, 
      { "nodeid": 4, "depth": 2, "split": "f4", "split_condition": 7, "yes": 7, "no": 8, "missing": 8 , "children": [
        { "nodeid": 7, "leaf": 0.123851895 }, 
        { "nodeid": 8, "leaf": 0.00581665197 }
      ]}
    ]}, 
    { "nodeid": 2, "leaf": 0.14610225 }
  ]},
  { "nodeid": 0, "depth": 0, "split": "f8", "split_condition": 2.55414724, "yes": 1, "no": 2, "missing": 2 , "children": [
    { "nodeid": 1, "depth": 1, "split": "f7", "split_condition": 23.6008472, "yes": 3, "no": 4, "missing": 4 , "children": [
      { "nodeid": 3, "leaf": -0.0153523916 }, 
      { "nodeid": 4, "depth": 2, "split": "f3", "split_condition": 4, "yes": 7, "no": 8, "missing": 8 , "children": [
        { "nodeid": 7, "leaf": 0.0799347907 }, 
        { "nodeid": 8, "leaf": 0.208932593 }
      ]}
    ]}, 
    { "nodeid": 2, "depth": 1, "split": "f2", "split_condition": 53.5307655, "yes": 5, "no": 6, "missing": 6 , "children": [
      { "nodeid": 5, "depth": 2, "split": "f1", "split_condition": 20.3960781, "yes": 9, "no": 10, "missing": 10 , "children": [
        { "nodeid": 9, "leaf": 0.188435331 }, 
        { "nodeid": 10, "leaf": -0.0314585455 }
      ]}, 
      { "nodeid": 6, "leaf": -0.197930992 }
    ]}
  ]},
  { "nodeid": 0, "depth": 0, "split": "f5", "split_condition": 78, "yes": 1, "no": 2, "missing": 2 , "children": [
    { "nodeid": 1, "depth": 1, "split": "f5", "split_condition": -63, "yes": 3, "no": 4, "missing": 4 , "children": [
      { "nodeid": 3, "depth": 2, "split": "f4", "split_condition": 4, "yes": 5, "no": 6, "missing": 6 , "children": [
        { "nodeid": 5, "leaf": 0.0154713262 }, 
        { "nodeid": 6, "leaf": -0.136442959 }
      ]}, 
      { "nodeid": 4, "depth": 2, "split": "f8", "split_condition": 1.37436855, "yes": 7, "no": 8, "missing": 8 , "children": [
        { "nodeid": 7, "leaf": 0.183869869 }, 
        { "nodeid": 8, "leaf": 0.03168758 }
      ]}
    ]}, 
    { "nodeid": 2, "leaf": -0.137259066 }
  ]},
  { "nodeid": 0, "depth": 0, "split": "f30", "split_condition": 1, "yes": 1, "no": 2, "missing": 2 , "children": [
    { "nodeid": 1, "depth": 1, "split": "f1", "split_condition": 14.3178215, "yes": 3, "no": 4, "missing": 4 , "children": [
      { "nodeid": 3, "leaf": 0.149028227 }, 
      { "nodeid": 4, "depth": 2, "split": "f28", "split_condition": 1, "yes": 5, "no": 6, "missing": 6 , "children": [
        { "nodeid": 5, "leaf": -0.198462248 }, 
        { "nodeid": 6, "leaf": -0.00686870096 }
      ]}
    ]}, 
    { "nodeid": 2, "leaf": 0.139448628 }
  ]},
  { "nodeid": 0, "depth": 0, "split": "f1", "split_condition": 159.530563, "yes": 1, "no": 2, "missing": 2 , "children": [
    { "nodeid": 1, "depth": 1, "split": "f3", "split_condition": -50, "yes": 3, "no": 4, "missing": 4 , "children": [
      { "nodeid": 3, "depth": 2, "split": "f4", "split_condition": 9, "yes": 7, "no": 8, "missing": 8 , "children": [
        { "nodeid": 7, "leaf": 0.148280635 }, 
        { "nodeid": 8, "leaf": -0.0296949483 }
      ]}, 
      { "nodeid": 4, "depth": 2, "split": "f28", "split_condition": 1, "yes": 9, "no": 10, "missing": 10 , "children": [
        { "nodeid": 9, "leaf": -0.0823413804 }, 
        { "nodeid": 10, "leaf": 0.0224703923 }
      ]}
    ]}, 
    { "nodeid": 2, "depth": 1, "split": "f6", "split_condition": 1, "yes": 5, "no": 6, "missing": 6 , "children": [
      { "nodeid": 5, "leaf": 0.0499348827 }, 
      { "nodeid": 6, "leaf": -0.207857043 }
    ]}
  ]},
  { "nodeid": 0, "depth": 0, "split": "f3", "split_condition": -68, "yes": 1, "no": 2, "missing": 2 , "children": [
    { "nodeid": 1, "depth": 1, "split": "f4", "split_condition": 4, "yes": 3, "no": 4, "missing": 4 , "children": [
      { "nodeid": 3, "leaf": 0.240263686 }, 
      { "nodeid": 4, "leaf": 0.0234677754 }
    ]}, 
    { "nodeid": 2, "depth": 1, "split": "f0", "split_condition": 1, "yes": 5, "no": 6, "missing": 6 , "children": [
      { "nodeid": 5, "depth": 2, "split": "f1", "split_condition": 62.2012863, "yes": 7, "no": 8, "missing": 8 , "children": [
        { "nodeid": 7, "leaf": 0.0628090203 }, 
        { "nodeid": 8, "leaf": -0.0988273323 }
      ]}, 
      { "nodeid": 6, "depth": 2, "split": "f4", "split_condition": -19, "yes": 9, "no": 10, "missing": 10 , "children": [
        { "nodeid": 9, "leaf": -0.106728703 }, 
        { "nodeid": 10, "leaf": 0.112607278 }
      ]}
    ]}
  ]},
  { "nodeid": 0, "depth": 0, "split": "f8", "split_condition": 0.843685687, "yes": 1, "no": 2, "missing": 2 , "children": [
    { "nodeid": 1, "leaf": 0.118076064 }, 
    { "nodeid": 2, "depth": 1, "split": "f7", "split_condition": 69.8927765, "yes": 3, "no": 4, "missing": 4 , "children": [
      { "nodeid": 3, "depth": 2, "split": "f21", "split_condition": 1, "yes": 5, "no": 6, "missing": 6 , "children": [
        { "nodeid": 5, "leaf": -0.0736065209 }, 
        { "nodeid": 6, "leaf": 0.127686992 }
      ]}, 
      { "nodeid": 4, "depth": 2, "split": "f8", "split_condition": 9.64689064, "yes": 7, "no": 8, "missing": 8 , "children": [
        { "nodeid": 7, "leaf": 0.0940837711 }, 
        { "nodeid": 8, "leaf": -0.0331926681 }
      ]}
    ]}
  ]},
  { "nodeid": 0, "depth": 0, "split": "f1", "split_condition": 111.198021, "yes": 1, "no": 2, "missing": 2 , "children": [
    { "nodeid": 1, "depth": 1, "split": "f2", "split_condition": 22.0362263, "yes": 3, "no": 4, "missing": 4 , "children": [
      { "nodeid": 3, "depth": 2, "split": "f2", "split_condition": 17.2414589, "yes": 7, "no": 8, "missing": 8 , "children": [
        { "nodeid": 7, "leaf": 0.0125248423 }, 
        { "nodeid": 8, "leaf": 0.223780453 }
      ]}, 
      { "nodeid": 4, "depth": 2, "split": "f5", "split_condition": -45, "yes": 9, "no": 10, "missing": 10 , "children": [
        { "nodeid": 9, "leaf": -0.0903637037 }, 
        { "nodeid": 10, "leaf": 0.046222847 }
      ]}
    ]}, 
    { "nodeid": 2, "depth": 1, "split": "f8", "split_condition": 1.13636363, "yes": 5, "no": 6, "missing": 6 , "children": [
      { "nodeid": 5, "leaf": 0.0836439729 }, 
      { "nodeid": 6, "depth": 2, "split": "f4", "split_condition": 10, "yes": 11, "no": 12, "missing": 12 , "children": [
        { "nodeid": 11, "leaf": -0.0249820892 }, 
        { "nodeid": 12, "leaf": -0.142968297 }
      ]}
    ]}
  ]},
  { "nodeid": 0, "depth": 0, "split": "f21", "split_condition": 1, "yes": 1, "no": 2, "missing": 2 , "children": [
    { "nodeid": 1, "depth": 1, "split": "f22", "split_condition": 1, "yes": 3, "no": 4, "missing": 4 , "children": [
      { "nodeid": 3, "depth": 2, "split": "f7", "split_condition": 22.3606796, "yes": 7, "no": 8, "missing": 8 , "children": [
        { "nodeid": 7, "leaf": -0.168726549 }, 
        { "nodeid": 8, "leaf": -0.0381348804 }
      ]}, 
      { "nodeid": 4, "depth": 2, "split": "f4", "split_condition": -5, "yes": 9, "no": 10, "missing": 10 , "children": [
        { "nodeid": 9, "leaf": -0.0600372739 }, 
        { "nodeid": 10, "leaf": 0.113204166 }
      ]}
    ]}, 
    { "nodeid": 2, "depth": 1, "split": "f4", "split_condition": -6, "yes": 5, "no": 6, "missing": 6 , "children": [
      { "nodeid": 5, "leaf": 0.155392736 }, 
      { "nodeid": 6, "leaf": 0.0354047827 }
    ]}
  ]},
  { "nodeid": 0, "depth": 0, "split": "f8", "split_condition": 2.55414724, "yes": 1, "no": 2, "missing": 2 , "children": [
    { "nodeid": 1, "depth": 1, "split": "f4", "split_condition": 14, "yes": 3, "no": 4, "missing": 4 , "children": [
      { "nodeid": 3, "depth": 2, "split": "f6", "split_condition": -2, "yes": 7, "no": 8, "missing": 8 , "children": [
        { "nodeid": 7, "leaf": -0.14826712 }, 
        { "nodeid": 8, "leaf": 0.112554282 }
      ]}, 
      { "nodeid": 4, "leaf": 0.228339389 }
    ]}, 
    { "nodeid": 2, "depth": 1, "split": "f20", "split_condition": 1, "yes": 5, "no": 6, "missing": 6 , "children": [
      { "nodeid": 5, "depth": 2, "split": "f8", "split_condition": 17.3925266, "yes": 9, "no": 10, "missing": 10 , "children": [
        { "nodeid": 9, "leaf": -0.0605563857 }, 
        { "nodeid": 10, "leaf": 0.0520105623 }
      ]}, 
      { "nodeid": 6, "leaf": 0.109897204 }
    ]}
  ]},
  { "nodeid": 0, "depth": 0, "split": "f1", "split_condition": 59.0931473, "yes": 1, "no": 2, "missing": 2 , "children": [
    { "nodeid": 1, "depth": 1, "split": "f6", "split_condition": -20, "yes": 3, "no": 4, "missing": 4 , "children": [
      { "nodeid": 3, "leaf": -0.0115220947 }, 
      { "nodeid": 4, "depth": 2, "split": "f4", "split_condition": 9, "yes": 7, "no": 8, "missing": 8 , "children": [
        { "nodeid": 7, "leaf": 0.155061096 }, 
        { "nodeid": 8, "leaf": 0.0299461707 }
      ]}
    ]}, 
    { "nodeid": 2, "depth": 1, "split": "f6", "split_condition": 23, "yes": 5, "no": 6, "missing": 6 , "children": [
      { "nodeid": 5, "depth": 2, "split": "f5", "split_condition": 71, "yes": 9, "no": 10, "missing": 10 , "children": [
        { "nodeid": 9, "leaf": 0.0251865424 }, 
        { "nodeid": 10, "leaf": -0.108259775 }
      ]}, 
      { "nodeid": 6, "leaf": -0.158318624 }
    ]}
  ]},
  { "nodeid": 0, "depth": 0, "split": "f7", "split_condition": 22.3606796, "yes": 1, "no": 2, "missing": 2 , "children": [
    { "nodeid": 1, "depth": 1, "split": "f7", "split_condition": 14.1421356, "yes": 3, "no": 4, "missing": 4 , "children": [
      { "nodeid": 3, "leaf": 0.0181729496 }, 
      { "nodeid": 4, "leaf": -0.238620579 }
    ]}, 
    { "nodeid": 2, "depth": 1, "split": "f29", "split_condition": 1, "yes": 5, "no": 6, "missing": 6 , "children": [
      { "nodeid": 5, "depth": 2, "split": "f7", "split_condition": 28.4604988, "yes": 7, "no": 8, "missing": 8 , "children": [
        { "nodeid": 7, "leaf": 0.171036109 }, 
        { "nodeid": 8, "leaf": 0.00192563061 }
      ]}, 
      { "nodeid": 6, "leaf": -0.110483527 }
    ]}
  ]},
  { "nodeid": 0, "depth": 0, "split": "f3", "split_condition": 19, "yes": 1, "no": 2, "missing": 2 , "children": [
    { "nodeid": 1, "depth": 1, "split": "f2", "split_condition": 17.1455517, "yes": 3, "no": 4, "missing": 4 , "children": [
      { "nodeid": 3, "depth": 2, "split": "f3", "split_condition": -47, "yes": 7, "no": 8, "missing": 8 , "children": [
        { "nodeid": 7, "leaf": 0.0115328198 }, 
        { "nodeid": 8, "leaf": -0.151613131 }
      ]}, 
      { "nodeid": 4, "depth": 2, "split": "f8", "split_condition": 5.72013998, "yes": 9, "no": 10, "missing": 10 , "children": [
        { "nodeid": 9, "leaf": -0.0505316705 }, 
        { "nodeid": 10, "leaf": 0.0742152333 }
      ]}
    ]}, 
    { "nodeid": 2, "depth": 1, "split": "f8", "split_condition": 1.84925747, "yes": 5, "no": 6, "missing": 6 , "children": [
      { "nodeid": 5, "leaf": 0.172941744 }, 
      { "nodeid": 6, "depth": 2, "split": "f6", "split_condition": 7, "yes": 11, "no": 12, "missing": 12 , "children": [
        { "nodeid": 11, "leaf": 0.0723666027 }, 
        { "nodeid": 12, "leaf": -0.0281237047 }
      ]}
    ]}
  ]},
  { "nodeid": 0, "depth": 0, "split": "f4", "split_condition": 21, "yes": 1, "no": 2, "missing": 2 , "children": [
    { "nodeid": 1, "depth": 1, "split": "f4", "split_condition": 7, "yes": 3, "no": 4, "missing": 4 , "children": [
      { "nodeid": 3, "depth": 2, "split": "f4", "split_condition": -18, "yes": 7, "no": 8, "missing": 8 , "children": [
        { "nodeid": 7, "leaf": -0.0606539138 }, 
        { "nodeid": 8, "leaf": 0.0445880592 }
      ]}, 
      { "nodeid": 4, "depth": 2, "split": "f8", "split_condition": 6.23278904, "yes": 9, "no": 10, "missing": 10 , "children": [
        { "nodeid": 9, "leaf": -0.0386351757 }, 
        { "nodeid": 10, "leaf": -0.318065196 }
      ]}
    ]}, 
    { "nodeid": 2, "depth": 1, "split": "f23", "split_condition": 1, "yes": 5, "no": 6, "missing": 6 , "children": [
      { "nodeid": 5, "depth": 2, "split": "f4", "split_condition": 29, "yes": 11, "no": 12, "missing": 12 , "children": [
        { "nodeid": 11, "leaf": 0.20929803 }, 
        { "nodeid": 12, "leaf": 0.0339117423 }
      ]}, 
      { "nodeid": 6, "leaf": -0.0337617658 }
    ]}
  ]},
  { "nodeid": 0, "depth": 0, "split": "f7", "split_condition": 137.462723, "yes": 1, "no": 2, "missing": 2 , "children": [
    { "nodeid": 1, "depth": 1, "split": "f1", "split_condition": 34.6554451, "yes": 3, "no": 4, "missing": 4 , "children": [
      { "nodeid": 3, "leaf": 0.142098382 }, 
      { "nodeid": 4, "depth": 2, "split": "f7", "split_condition": 18.4390888, "yes": 5, "no": 6, "missing": 6 , "children": [
        { "nodeid": 5, "leaf": -0.0819941387 }, 
        { "nodeid": 6, "leaf": 0.0274376329 }
      ]}
    ]}, 
    { "nodeid": 2, "leaf": -0.0770846307 }
  ]},
  { "nodeid": 0, "depth": 0, "split": "f20", "split_condition": 1, "yes": 1, "no": 2, "missing": 2 , "children": [
    { "nodeid": 1, "depth": 1, "split": "f8", "split_condition": 9.99062061, "yes": 3, "no": 4, "missing": 4 , "children": [
      { "nodeid": 3, "depth": 2, "split": "f2", "split_condition": 1.85759032, "yes": 5, "no": 6, "missing": 6 , "children": [
        { "nodeid": 5, "leaf": -0.119687267 }, 
        { "nodeid": 6, "leaf": 0.0450527407 }
      ]}, 
      { "nodeid": 4, "depth": 2, "split": "f2", "split_condition": 37.9542313, "yes": 7, "no": 8, "missing": 8 , "children": [
        { "nodeid": 7, "leaf": -0.105496459 }, 
        { "nodeid": 8, "leaf": 0.0944717973 }
      ]}
    ]}, 
    { "nodeid": 2, "leaf": 0.0941210911 }
  ]},
  { "nodeid": 0, "depth": 0, "split": "f1", "split_condition": 160.330902, "yes": 1, "no": 2, "missing": 2 , "children": [
    { "nodeid": 1, "depth": 1, "split": "f1", "split_condition": 151.211777, "yes": 3, "no": 4, "missing": 4 , "children": [
      { "nodeid": 3, "depth": 2, "split": "f6", "split_condition": 29, "yes": 7, "no": 8, "missing": 8 , "children": [
        { "nodeid": 7, "leaf": -0.0217446964 }, 
        { "nodeid": 8, "leaf": 0.115920104 }
      ]}, 
      { "nodeid": 4, "leaf": 0.136981964 }
    ]}, 
    { "nodeid": 2, "depth": 1, "split": "f23", "split_condition": 1, "yes": 5, "no": 6, "missing": 6 , "children": [
      { "nodeid": 5, "leaf": 0.0337769687 }, 
      { "nodeid": 6, "leaf": -0.179828331 }
    ]}
  ]},
  { "nodeid": 0, "depth": 0, "split": "f7", "split_condition": 48.4664841, "yes": 1, "no": 2, "missing": 2 , "children": [
    { "nodeid": 1, "depth": 1, "split": "f7", "split_condition": 39.5979805, "yes": 3, "no": 4, "missing": 4 , "children": [
      { "nodeid": 3, "depth": 2, "split": "f22", "split_condition": 1, "yes": 7, "no": 8, "missing": 8 , "children": [
        { "nodeid": 7, "leaf": 0.0339233056 }, 
        { "nodeid": 8, "leaf": -0.0816227496 }
      ]}, 
      { "nodeid": 4, "leaf": 0.195082501 }
    ]}, 
    { "nodeid": 2, "depth": 1, "split": "f7", "split_condition": 59.439045, "yes": 5, "no": 6, "missing": 6 , "children": [
      { "nodeid": 5, "leaf": -0.201989695 }, 
      { "nodeid": 6, "depth": 2, "split": "f8", "split_condition": 3.15837121, "yes": 9, "no": 10, "missing": 10 , "children": [
        { "nodeid": 9, "leaf": 0.179781675 }, 
        { "nodeid": 10, "leaf": -0.0171880238 }
      ]}
    ]}
  ]},
  { "nodeid": 0, "depth": 0, "split": "f5", "split_condition": 71, "yes": 1, "no": 2, "missing": 2 , "children": [
    { "nodeid": 1, "depth": 1, "split": "f5", "split_condition": 69, "yes": 3, "no": 4, "missing": 4 , "children": [
      { "nodeid": 3, "depth": 2, "split": "f8", "split_condition": 5.16935396, "yes": 7, "no": 8, "missing": 8 , "children": [
        { "nodeid": 7, "leaf": -0.0640060827 }, 
        { "nodeid": 8, "leaf": 0.0290024765 }
      ]}, 
      { "nodeid": 4, "depth": 2, "split": "f4", "split_condition": -2, "yes": 9, "no": 10, "missing": 10 , "children": [
        { "nodeid": 9, "leaf": 0.17394577 }, 
        { "nodeid": 10, "leaf": 0.0662268624 }
      ]}
    ]}, 
    { "nodeid": 2, "depth": 1, "split": "f4", "split_condition": -4, "yes": 5, "no": 6, "missing": 6 , "children": [
      { "nodeid": 5, "leaf": -0.248626724 }, 
      { "nodeid": 6, "leaf": 0.016228281 }
    ]}
  ]},
  { "nodeid": 0, "depth": 0, "split": "f8", "split_condition": 4.35670757, "yes": 1, "no": 2, "missing": 2 , "children": [
    { "nodeid": 1, "depth": 1, "split": "f5", "split_condition": 68, "yes": 3, "no": 4, "missing": 4 , "children": [
      { "nodeid": 3, "depth": 2, "split": "f23", "split_condition": 1, "yes": 7, "no": 8, "missing": 8 , "children": [
        { "nodeid": 7, "leaf": 0.087588042 }, 
        { "nodeid": 8, "leaf": -0.0953568816 }
      ]}, 
      { "nodeid": 4, "leaf": 0.13366574 }
    ]}, 
    { "nodeid": 2, "depth": 1, "split": "f20", "split_condition": 1, "yes": 5, "no": 6, "missing": 6 , "children": [
      { "nodeid": 5, "depth": 2, "split": "f1", "split_condition": 25.0199928, "yes": 9, "no": 10, "missing": 10 , "children": [
        { "nodeid": 9, "leaf": -0.167671368 }, 
        { "nodeid": 10, "leaf": -0.0231214352 }
      ]}, 
      { "nodeid": 6, "leaf": 0.085147664 }
    ]}
  ]},
  { "nodeid": 0, "depth": 0, "split": "f5", "split_condition": -77, "yes": 1, "no": 2, "missing": 2 , "children": [
    { "nodeid": 1, "leaf": -0.0908447355 }, 
    { "nodeid": 2, "depth": 1, "split": "f4", "split_condition": 21, "yes": 3, "no": 4, "missing": 4 , "children": [
      { "nodeid": 3, "depth": 2, "split": "f4", "split_condition": 2, "yes": 5, "no": 6, "missing": 6 , "children": [
        { "nodeid": 5, "leaf": 0.0252661519 }, 
        { "nodeid": 6, "leaf": -0.0877642557 }
      ]}, 
      { "nodeid": 4, "depth": 2, "split": "f22", "split_condition": 1, "yes": 7, "no": 8, "missing": 8 , "children": [
        { "nodeid": 7, "leaf": 0.0274277497 }, 
        { "nodeid": 8, "leaf": 0.176080093 }
      ]}
    ]}
  ]},
  { "nodeid": 0, "depth": 0, "split": "f21", "split_condition": 1, "yes": 1, "no": 2, "missing": 2 , "children": [
    { "nodeid": 1, "depth": 1, "split": "f6", "split_condition": -22, "yes": 3, "no": 4, "missing": 4 , "children": [
      { "nodeid": 3, "depth": 2, "split": "f6", "split_condition": -32, "yes": 7, "no": 8, "missing": 8 , "children": [
        { "nodeid": 7, "leaf": -0.0496929102 }, 
        { "nodeid": 8, "leaf": 0.218598455 }
      ]}, 
      { "nodeid": 4, "depth": 2, "split": "f22", "split_condition": 1, "yes": 9, "no": 10, "missing": 10 , "children": [
        { "nodeid": 9, "leaf": -0.065553382 }, 
        { "nodeid": 10, "leaf": 0.0529272258 }
      ]}
    ]}, 
    { "nodeid": 2, "depth": 1, "split": "f7", "split_condition": 66.4906006, "yes": 5, "no": 6, "missing": 6 , "children": [
      { "nodeid": 5, "leaf": 0.151044399 }, 
      { "nodeid": 6, "leaf": 0.0211604107 }
    ]}
  ]},
  { "nodeid": 0, "depth": 0, "split": "f30", "split_condition": 1, "yes": 1, "no": 2, "missing": 2 , "children": [
    { "nodeid": 1, "depth": 1, "split": "f8", "split_condition": 20.90308, "yes": 3, "no": 4, "missing": 4 , "children": [
      { "nodeid": 3, "depth": 2, "split": "f4", "split_condition": -36, "yes": 5, "no": 6, "missing": 6 , "children": [
        { "nodeid": 5, "leaf": 0.0989812687 }, 
        { "nodeid": 6, "leaf": -0.0419105776 }
      ]}, 
      { "nodeid": 4, "leaf": 0.0863493457 }
    ]}, 
    { "nodeid": 2, "leaf": 0.0917865187 }
  ]},
  { "nodeid": 0, "depth": 0, "split": "f8", "split_condition": 20.90308, "yes": 1, "no": 2, "missing": 2 , "children": [
    { "nodeid": 1, "depth": 1, "split": "f8", "split_condition": 10.8236895, "yes": 3, "no": 4, "missing": 4 , "children": [
      { "nodeid": 3, "depth": 2, "split": "f1", "split_condition": 40.1621704, "yes": 5, "no": 6, "missing": 6 , "children": [
        { "nodeid": 5, "leaf": 0.156474963 }, 
        { "nodeid": 6, "leaf": -0.0288639795 }
      ]}, 
      { "nodeid": 4, "depth": 2, "split": "f8", "split_condition": 13.7679176, "yes": 7, "no": 8, "missing": 8 , "children": [
        { "nodeid": 7, "leaf": -0.18656303 }, 
        { "nodeid": 8, "leaf": -0.0276790354 }
      ]}
    ]}, 
    { "nodeid": 2, "leaf": 0.0663290545 }
  ]},
  { "nodeid": 0, "depth": 0, "split": "f2", "split_condition": 53.5307655, "yes": 1, "no": 2, "missing": 2 , "children": [
    { "nodeid": 1, "depth": 1, "split": "f8", "split_condition": 1.62940443, "yes": 3, "no": 4, "missing": 4 , "children": [
      { "nodeid": 3, "depth": 2, "split": "f8", "split_condition": 1.08007753, "yes": 5, "no": 6, "missing": 6 , "children": [
        { "nodeid": 5, "leaf": 0.0235758293 }, 
        { "nodeid": 6, "leaf": -0.191601396 }
      ]}, 
      { "nodeid": 4, "depth": 2, "split": "f7", "split_condition": 48.8773994, "yes": 7, "no": 8, "missing": 8 , "children": [
        { "nodeid": 7, "leaf": 0.0722121 }, 
        { "nodeid": 8, "leaf": -0.00451762695 }
      ]}
    ]}, 
    { "nodeid": 2, "leaf": -0.12188223 }
  ]},
  { "nodeid": 0, "depth": 0, "split": "f5", "split_condition": 74, "yes": 1, "no": 2, "missing": 2 , "children": [
    { "nodeid": 1, "depth": 1, "split": "f2", "split_condition": 53.5307655, "yes": 3, "no": 4, "missing": 4 , "children": [
      { "nodeid": 3, "depth": 2, "split": "f6", "split_condition": 14, "yes": 5, "no": 6, "missing": 6 , "children": [
        { "nodeid": 5, "leaf": 0.0560869351 }, 
        { "nodeid": 6, "leaf": -0.0171246752 }
      ]}, 
      { "nodeid": 4, "leaf": -0.102092095 }
    ]}, 
    { "nodeid": 2, "leaf": -0.0897783116 }
  ]},
  { "nodeid": 0, "depth": 0, "split": "f4", "split_condition": -35, "yes": 1, "no": 2, "missing": 2 , "children": [
    { "nodeid": 1, "leaf": 0.0772684813 }, 
    { "nodeid": 2, "depth": 1, "split": "f8", "split_condition": 2.47476149, "yes": 3, "no": 4, "missing": 4 , "children": [
      { "nodeid": 3, "depth": 2, "split": "f8", "split_condition": 1.62940443, "yes": 5, "no": 6, "missing": 6 , "children": [
        { "nodeid": 5, "leaf": -0.0204077642 }, 
        { "nodeid": 6, "leaf": 0.161118299 }
      ]}, 
      { "nodeid": 4, "depth": 2, "split": "f8", "split_condition": 3.69951224, "yes": 7, "no": 8, "missing": 8 , "children": [
        { "nodeid": 7, "leaf": -0.133090645 }, 
        { "nodeid": 8, "leaf": -0.0197957512 }
      ]}
    ]}
  ]},
  { "nodeid": 0, "depth": 0, "split": "f1", "split_condition": 165.048477, "yes": 1, "no": 2, "missing": 2 , "children": [
    { "nodeid": 1, "depth": 1, "split": "f3", "split_condition": 36, "yes": 3, "no": 4, "missing": 4 , "children": [
      { "nodeid": 3, "depth": 2, "split": "f7", "split_condition": 78.1856766, "yes": 5, "no": 6, "missing": 6 , "children": [
        { "nodeid": 5, "leaf": -0.044531405 }, 
        { "nodeid": 6, "leaf": 0.0512699895 }
      ]}, 
      { "nodeid": 4, "depth": 2, "split": "f2", "split_condition": 24.6235657, "yes": 7, "no": 8, "missing": 8 , "children": [
        { "nodeid": 7, "leaf": 0.130000293 }, 
        { "nodeid": 8, "leaf": -0.0408301838 }
      ]}
    ]}, 
    { "nodeid": 2, "leaf": -0.071359694 }
  ]},
  { "nodeid": 0, "depth": 0, "split": "f1", "split_condition": 170.293869, "yes": 1, "no": 2, "missing": 2 , "children": [
    { "nodeid": 1, "depth": 1, "split": "f7", "split_condition": 143.683685, "yes": 3, "no": 4, "missing": 4 , "children": [
      { "nodeid": 3, "depth": 2, "split": "f3", "split_condition": -65, "yes": 5, "no": 6, "missing": 6 , "children": [
        { "nodeid": 5, "leaf": -0.127531081 }, 
        { "nodeid": 6, "leaf": -0.000860719243 }
      ]}, 
      { "nodeid": 4, "leaf": 0.100597136 }
    ]}, 
    { "nodeid": 2, "leaf": 0.105299644 }
  ]},
  { "nodeid": 0, "depth": 0, "split": "f7", "split_condition": 101.833199, "yes": 1, "no": 2, "missing": 2 , "children": [
    { "nodeid": 1, "depth": 1, "split": "f3", "split_condition": -68, "yes": 3, "no": 4, "missing": 4 , "children": [
      { "nodeid": 3, "leaf": 0.0924250856 }, 
      { "nodeid": 4, "depth": 2, "split": "f28", "split_condition": 1, "yes": 7, "no": 8, "missing": 8 , "children": [
        { "nodeid": 7, "leaf": -0.12888734 }, 
        { "nodeid": 8, "leaf": -0.0195927415 }
      ]}
    ]}, 
    { "nodeid": 2, "depth": 1, "split": "f1", "split_condition": 21.9317131, "yes": 5, "no": 6, "missing": 6 , "children": [
      { "nodeid": 5, "leaf": -0.056283433 }, 
      { "nodeid": 6, "depth": 2, "split": "f23", "split_condition": 1, "yes": 9, "no": 10, "missing": 10 , "children": [
        { "nodeid": 9, "leaf": 0.0302239414 }, 
        { "nodeid": 10, "leaf": 0.17589514 }
      ]}
    ]}
  ]},
  { "nodeid": 0, "depth": 0, "split": "f8", "split_condition": 2.5, "yes": 1, "no": 2, "missing": 2 , "children": [
    { "nodeid": 1, "depth": 1, "split": "f4", "split_condition": 14, "yes": 3, "no": 4, "missing": 4 , "children": [
      { "nodeid": 3, "depth": 2, "split": "f6", "split_condition": -2, "yes": 7, "no": 8, "missing": 8 , "children": [
        { "nodeid": 7, "leaf": -0.0766662136 }, 
        { "nodeid": 8, "leaf": 0.0693625212 }
      ]}, 
      { "nodeid": 4, "leaf": 0.179810822 }
    ]}, 
    { "nodeid": 2, "depth": 1, "split": "f8", "split_condition": 6.72164822, "yes": 5, "no": 6, "missing": 6 , "children": [
      { "nodeid": 5, "depth": 2, "split": "f4", "split_condition": 0, "yes": 9, "no": 10, "missing": 10 , "children": [
        { "nodeid": 9, "leaf": 0.0255325083 }, 
        { "nodeid": 10, "leaf": -0.129261717 }
      ]}, 
      { "nodeid": 6, "depth": 2, "split": "f2", "split_condition": 4.21049833, "yes": 11, "no": 12, "missing": 12 , "children": [
        { "nodeid": 11, "leaf": 0.159581408 }, 
        { "nodeid": 12, "leaf": -0.00315203075 }
      ]}
    ]}
  ]},
  { "nodeid": 0, "depth": 0, "split": "f2", "split_condition": 53.5307655, "yes": 1, "no": 2, "missing": 2 , "children": [
    { "nodeid": 1, "depth": 1, "split": "f5", "split_condition": -63, "yes": 3, "no": 4, "missing": 4 , "children": [
      { "nodeid": 3, "depth": 2, "split": "f5", "split_condition": -72, "yes": 5, "no": 6, "missing": 6 , "children": [
        { "nodeid": 5, "leaf": 0.0343266875 }, 
        { "nodeid": 6, "leaf": -0.0886171237 }
      ]}, 
      { "nodeid": 4, "depth": 2, "split": "f5", "split_condition": 30, "yes": 7, "no": 8, "missing": 8 , "children": [
        { "nodeid": 7, "leaf": 0.119189426 }, 
        { "nodeid": 8, "leaf": 0.00175841746 }
      ]}
    ]}, 
    { "nodeid": 2, "leaf": -0.13297604 }
  ]},
  { "nodeid": 0, "depth": 0, "split": "f3", "split_condition": -49, "yes": 1, "no": 2, "missing": 2 , "children": [
    { "nodeid": 1, "depth": 1, "split": "f7", "split_condition": 25.6320114, "yes": 3, "no": 4, "missing": 4 , "children": [
      { "nodeid": 3, "leaf": -0.0494874939 }, 
      { "nodeid": 4, "depth": 2, "split": "f8", "split_condition": 9.12276554, "yes": 7, "no": 8, "missing": 8 , "children": [
        { "nodeid": 7, "leaf": 0.189334989 }, 
        { "nodeid": 8, "leaf": -0.00400462048 }
      ]}
    ]}, 
    { "nodeid": 2, "depth": 1, "split": "f3", "split_condition": -30, "yes": 5, "no": 6, "missing": 6 , "children": [
      { "nodeid": 5, "leaf": -0.163915947 }, 
      { "nodeid": 6, "depth": 2, "split": "f4", "split_condition": -30, "yes": 9, "no": 10, "missing": 10 , "children": [
        { "nodeid": 9, "leaf": 0.0955790356 }, 
        { "nodeid": 10, "leaf": -0.0190091282 }
      ]}
    ]}
  ]},
  { "nodeid": 0, "depth": 0, "split": "f2", "split_condition": 17.2414589, "yes": 1, "no": 2, "missing": 2 , "children": [
    { "nodeid": 1, "depth": 1, "split": "f2", "split_condition": 14.1210003, "yes": 3, "no": 4, "missing": 4 , "children": [
      { "nodeid": 3, "depth": 2, "split": "f2", "split_condition": 11.5601311, "yes": 7, "no": 8, "missing": 8 , "children": [
        { "nodeid": 7, "leaf": -0.0256655589 }, 
        { "nodeid": 8, "leaf": 0.137874976 }
      ]}, 
      { "nodeid": 4, "leaf": -0.178778365 }
    ]}, 
    { "nodeid": 2, "depth": 1, "split": "f2", "split_condition": 59.0362434, "yes": 5, "no": 6, "missing": 6 , "children": [
      { "nodeid": 5, "depth": 2, "split": "f3", "split_condition": -11, "yes": 9, "no": 10, "missing": 10 , "children": [
        { "nodeid": 9, "leaf": 0.121715851 }, 
        { "nodeid": 10, "leaf": 0.0116515076 }
      ]}, 
      { "nodeid": 6, "leaf": -0.076501295 }
    ]}
  ]},
  { "nodeid": 0, "depth": 0, "split": "f1", "split_condition": 20.3960781, "yes": 1, "no": 2, "missing": 2 , "children": [
    { "nodeid": 1, "leaf": 0.1428141 }, 
    { "nodeid": 2, "depth": 1, "split": "f4", "split_condition": 34, "yes": 3, "no": 4, "missing": 4 , "children": [
      { "nodeid": 3, "depth": 2, "split": "f4", "split_condition": -2, "yes": 5, "no": 6, "missing": 6 , "children": [
        { "nodeid": 5, "leaf": 0.00162759528 }, 
        { "nodeid": 6, "leaf": -0.0602898002 }
      ]}, 
      { "nodeid": 4, "leaf": 0.0835965946 }
    ]}
  ]},
  { "nodeid": 0, "depth": 0, "split": "f20", "split_condition": 1, "yes": 1, "no": 2, "missing": 2 , "children": [
    { "nodeid": 1, "depth": 1, "split": "f2", "split_condition": 43.0250664, "yes": 3, "no": 4, "missing": 4 , "children": [
      { "nodeid": 3, "depth": 2, "split": "f2", "split_condition": 32.4711914, "yes": 5, "no": 6, "missing": 6 , "children": [
        { "nodeid": 5, "leaf": -0.0187515114 }, 
        { "nodeid": 6, "leaf": -0.171860859 }
      ]}, 
      { "nodeid": 4, "leaf": 0.0802604258 }
    ]}, 
    { "nodeid": 2, "leaf": 0.0994982943 }
  ]},
  { "nodeid": 0, "depth": 0, "split": "f4", "split_condition": -20, "yes": 1, "no": 2, "missing": 2 , "children": [
    { "nodeid": 1, "depth": 1, "split": "f2", "split_condition": 20.6954498, "yes": 3, "no": 4, "missing": 4 , "children": [
      { "nodeid": 3, "leaf": -0.115171462 }, 
      { "nodeid": 4, "depth": 2, "split": "f0", "split_condition": 1, "yes": 7, "no": 8, "missing": 8 , "children": [
        { "nodeid": 7, "leaf": 0.105610877 }, 
        { "nodeid": 8, "leaf": -0.0250209756 }
      ]}
    ]}, 
    { "nodeid": 2, "depth": 1, "split": "f3", "split_condition": -72, "yes": 5, "no": 6, "missing": 6 , "children": [
      { "nodeid": 5, "leaf": -0.0744183362 }, 
      { "nodeid": 6, "depth": 2, "split": "f2", "split_condition": 1.15733302, "yes": 9, "no": 10, "missing": 10 , "children": [
        { "nodeid": 9, "leaf": -0.0736171305 }, 
        { "nodeid": 10, "leaf": 0.0789585486 }
      ]}
    ]}
  ]},
  { "nodeid": 0, "depth": 0, "split": "f8", "split_condition": 25.2301407, "yes": 1, "no": 2, "missing": 2 , "children": [
    { "nodeid": 1, "depth": 1, "split": "f3", "split_condition": -69, "yes": 3, "no": 4, "missing": 4 , "children": [
      { "nodeid": 3, "leaf": -0.0536963716 }, 
      { "nodeid": 4, "depth": 2, "split": "f24", "split_condition": 1, "yes": 5, "no": 6, "missing": 6 , "children": [
        { "nodeid": 5, "leaf": 0.0434789099 }, 
        { "nodeid": 6, "leaf": -0.0474481285 }
      ]}
    ]}, 
    { "nodeid": 2, "leaf": -0.0980451256 }
  ]},
  { "nodeid": 0, "depth": 0, "split": "f5", "split_condition": -72, "yes": 1, "no": 2, "missing": 2 , "children": [
    { "nodeid": 1, "depth": 1, "split": "f8", "split_condition": 8.38525486, "yes": 3, "no": 4, "missing": 4 , "children": [
      { "nodeid": 3, "leaf": -0.0505018421 }, 
      { "nodeid": 4, "leaf": 0.114132144 }
    ]}, 
    { "nodeid": 2, "depth": 1, "split": "f7", "split_condition": 31.1448231, "yes": 5, "no": 6, "missing": 6 , "children": [
      { "nodeid": 5, "depth": 2, "split": "f0", "split_condition": 1, "yes": 7, "no": 8, "missing": 8 , "children": [
        { "nodeid": 7, "leaf": -0.0882566348 }, 
        { "nodeid": 8, "leaf": 0.0907378867 }
      ]}, 
      { "nodeid": 6, "depth": 2, "split": "f7", "split_condition": 39.5979805, "yes": 9, "no": 10, "missing": 10 , "children": [
        { "nodeid": 9, "leaf": -0.16049701 }, 
        { "nodeid": 10, "leaf": -0.0387491696 }
      ]}
    ]}
  ]},
  { "nodeid": 0, "depth": 0, "split": "f3", "split_condition": 34, "yes": 1, "no": 2, "missing": 2 , "children": [
    { "nodeid": 1, "depth": 1, "split": "f3", "split_condition": -7, "yes": 3, "no": 4, "missing": 4 , "children": [
      { "nodeid": 3, "depth": 2, "split": "f8", "split_condition": 9.28035545, "yes": 7, "no": 8, "missing": 8 , "children": [
        { "nodeid": 7, "leaf": 0.0428775549 }, 
        { "nodeid": 8, "leaf": -0.0538136959 }
      ]}, 
      { "nodeid": 4, "depth": 2, "split": "f7", "split_condition": 78.1856766, "yes": 9, "no": 10, "missing": 10 , "children": [
        { "nodeid": 9, "leaf": -0.132261872 }, 
        { "nodeid": 10, "leaf": 0.0380504616 }
      ]}
    ]}, 
    { "nodeid": 2, "depth": 1, "split": "f3", "split_condition": 49, "yes": 5, "no": 6, "missing": 6 , "children": [
      { "nodeid": 5, "leaf": 0.144327939 }, 
      { "nodeid": 6, "depth": 2, "split": "f3", "split_condition": 62, "yes": 11, "no": 12, "missing": 12 , "children": [
        { "nodeid": 11, "leaf": -0.0989046171 }, 
        { "nodeid": 12, "leaf": 0.0502508469 }
      ]}
    ]}
  ]},
  { "nodeid": 0, "depth": 0, "split": "f8", "split_condition": 4.35670757, "yes": 1, "no": 2, "missing": 2 , "children": [
    { "nodeid": 1, "depth": 1, "split": "f4", "split_condition": -2, "yes": 3, "no": 4, "missing": 4 , "children": [
      { "nodeid": 3, "depth": 2, "split": "f4", "split_condition": -25, "yes": 7, "no": 8, "missing": 8 , "children": [
        { "nodeid": 7, "leaf": -0.011640219 }, 
        { "nodeid": 8, "leaf": 0.236858144 }
      ]}, 
      { "nodeid": 4, "depth": 2, "split": "f6", "split_condition": 2, "yes": 9, "no": 10, "missing": 10 , "children": [
        { "nodeid": 9, "leaf": 0.0722287893 }, 
        { "nodeid": 10, "leaf": -0.0746854246 }
      ]}
    ]}, 
    { "nodeid": 2, "depth": 1, "split": "f2", "split_condition": 3.2939651, "yes": 5, "no": 6, "missing": 6 , "children": [
      { "nodeid": 5, "leaf": 0.0966012552 }, 
      { "nodeid": 6, "depth": 2, "split": "f4", "split_condition": 14, "yes": 11, "no": 12, "missing": 12 , "children": [
        { "nodeid": 11, "leaf": -0.0937382951 }, 
        { "nodeid": 12, "leaf": 0.00303754443 }
      ]}
    ]}
  ]},
  { "nodeid": 0, "depth": 0, "split": "f6", "split_condition": -14, "yes": 1, "no": 2, "missing": 2 , "children": [
    { "nodeid": 1, "depth": 1, "split": "f7", "split_condition": 80.6597824, "yes": 3, "no": 4, "missing": 4 , "children": [
      { "nodeid": 3, "depth": 2, "split": "f0", "split_condition": 1, "yes": 7, "no": 8, "missing": 8 , "children": [
        { "nodeid": 7, "leaf": -0.196316257 }, 
        { "nodeid": 8, "leaf": -0.00738201244 }
      ]}, 
      { "nodeid": 4, "depth": 2, "split": "f7", "split_condition": 116.107712, "yes": 9, "no": 10, "missing": 10 , "children": [
        { "nodeid": 9, "leaf": 0.0862702131 }, 
        { "nodeid": 10, "leaf": -0.0125154499 }
      ]}
    ]}, 
    { "nodeid": 2, "depth": 1, "split": "f21", "split_condition": 1, "yes": 5, "no": 6, "missing": 6 , "children": [
      { "nodeid": 5, "depth": 2, "split": "f24", "split_condition": 1, "yes": 11, "no": 12, "missing": 12 , "children": [
        { "nodeid": 11, "leaf": 0.0162121505 }, 
        { "nodeid": 12, "leaf": -0.108780213 }
      ]}, 
      { "nodeid": 6, "depth": 2, "split": "f23", "split_condition": 1, "yes": 13, "no": 14, "missing": 14 , "children": [
        { "nodeid": 13, "leaf": 0.0270177852 }, 
        { "nodeid": 14, "leaf": 0.134923071 }
      ]}
    ]}
  ]},
  { "nodeid": 0, "depth": 0, "split": "f30", "split_condition": 1, "yes": 1, "no": 2, "missing": 2 , "children": [
    { "nodeid": 1, "depth": 1, "split": "f7", "split_condition": 14.3178215, "yes": 3, "no": 4, "missing": 4 , "children": [
      { "nodeid": 3, "leaf": 0.100891456 }, 
      { "nodeid": 4, "depth": 2, "split": "f2", "split_condition": 27.2161121, "yes": 5, "no": 6, "missing": 6 , "children": [
        { "nodeid": 5, "leaf": 0.0072734626 }, 
        { "nodeid": 6, "leaf": -0.07619939 }
      ]}
    ]}, 
    { "nodeid": 2, "leaf": 0.109508961 }
  ]},
  { "nodeid": 0, "depth": 0, "split": "f4", "split_condition": -36, "yes": 1, "no": 2, "missing": 2 , "children": [
    { "nodeid": 1, "leaf": 0.0950363278 }, 
    { "nodeid": 2, "depth": 1, "split": "f6", "split_condition": 14, "yes": 3, "no": 4, "missing": 4 , "children": [
      { "nodeid": 3, "depth": 2, "split": "f4", "split_condition": 14, "yes": 5, "no": 6, "missing": 6 , "children": [
        { "nodeid": 5, "leaf": -0.00825719815 }, 
        { "nodeid": 6, "leaf": 0.0947946981 }
      ]}, 
      { "nodeid": 4, "depth": 2, "split": "f4", "split_condition": 25, "yes": 7, "no": 8, "missing": 8 , "children": [
        { "nodeid": 7, "leaf": -0.0170971043 }, 
        { "nodeid": 8, "leaf": -0.14416334 }
      ]}
    ]}
  ]},
  { "nodeid": 0, "depth": 0, "split": "f8", "split_condition": 6.63442707, "yes": 1, "no": 2, "missing": 2 , "children": [
    { "nodeid": 1, "depth": 1, "split": "f5", "split_condition": -64, "yes": 3, "no": 4, "missing": 4 , "children": [
      { "nodeid": 3, "depth": 2, "split": "f4", "split_condition": 2, "yes": 7, "no": 8, "missing": 8 , "children": [
        { "nodeid": 7, "leaf": 0.000808199286 }, 
        { "nodeid": 8, "leaf": -0.196991488 }
      ]}, 
      { "nodeid": 4, "depth": 2, "split": "f4", "split_condition": -25, "yes": 9, "no": 10, "missing": 10 , "children": [
        { "nodeid": 9, "leaf": -0.077773042 }, 
        { "nodeid": 10, "leaf": 0.0518024042 }
      ]}
    ]}, 
    { "nodeid": 2, "depth": 1, "split": "f1", "split_condition": 36.7151184, "yes": 5, "no": 6, "missing": 6 , "children": [
      { "nodeid": 5, "leaf": -0.0491103008 }, 
      { "nodeid": 6, "depth": 2, "split": "f3", "split_condition": -31, "yes": 11, "no": 12, "missing": 12 , "children": [
        { "nodeid": 11, "leaf": -0.017283557 }, 
        { "nodeid": 12, "leaf": 0.108849227 }
      ]}
    ]}
  ]},
  { "nodeid": 0, "depth": 0, "split": "f3", "split_condition": -77, "yes": 1, "no": 2, "missing": 2 , "children": [
    { "nodeid": 1, "leaf": 0.11536061 }, 
    { "nodeid": 2, "depth": 1, "split": "f13", "split_condition": 1, "yes": 3, "no": 4, "missing": 4 , "children": [
      { "nodeid": 3, "depth": 2, "split": "f28", "split_condition": 1, "yes": 5, "no": 6, "missing": 6 , "children": [
        { "nodeid": 5, "leaf": -0.0592524856 }, 
        { "nodeid": 6, "leaf": 0.00855245814 }
      ]}, 
      { "nodeid": 4, "leaf": 0.109917544 }
    ]}
  ]},
  { "nodeid": 0, "depth": 0, "split": "f4", "split_condition": -28, "yes": 1, "no": 2, "missing": 2 , "children": [
    { "nodeid": 1, "depth": 1, "split": "f7", "split_condition": 77.7946014, "yes": 3, "no": 4, "missing": 4 , "children": [
      { "nodeid": 3, "leaf": -0.0107872346 }, 
      { "nodeid": 4, "leaf": 0.155144498 }
    ]}, 
    { "nodeid": 2, "depth": 1, "split": "f6", "split_condition": -23, "yes": 5, "no": 6, "missing": 6 , "children": [
      { "nodeid": 5, "leaf": 0.103848934 }, 
      { "nodeid": 6, "depth": 2, "split": "f4", "split_condition": -18, "yes": 7, "no": 8, "missing": 8 , "children": [
        { "nodeid": 7, "leaf": -0.150425568 }, 
        { "nodeid": 8, "leaf": -0.0158851463 }
      ]}
    ]}
  ]},
  { "nodeid": 0, "depth": 0, "split": "f3", "split_condition": -47, "yes": 1, "no": 2, "missing": 2 , "children": [
    { "nodeid": 1, "depth": 1, "split": "f8", "split_condition": 7.27522421, "yes": 3, "no": 4, "missing": 4 , "children": [
      { "nodeid": 3, "depth": 2, "split": "f7", "split_condition": 23.6008472, "yes": 7, "no": 8, "missing": 8 , "children": [
        { "nodeid": 7, "leaf": 0.00403507845 }, 
        { "nodeid": 8, "leaf": 0.185592264 }
      ]}, 
      { "nodeid": 4, "leaf": -0.0101914182 }
    ]}, 
    { "nodeid": 2, "depth": 1, "split": "f21", "split_condition": 1, "yes": 5, "no": 6, "missing": 6 , "children": [
      { "nodeid": 5, "depth": 2, "split": "f8", "split_condition": 4.35670757, "yes": 9, "no": 10, "missing": 10 , "children": [
        { "nodeid": 9, "leaf": 0.051535286 }, 
        { "nodeid": 10, "leaf": -0.0272507612 }
      ]}, 
      { "nodeid": 6, "leaf": -0.0978636742 }
    ]}
  ]},
  { "nodeid": 0, "depth": 0, "split": "f17", "split_condition": 1, "yes": 1, "no": 2, "missing": 2 , "children": [
    { "nodeid": 1, "depth": 1, "split": "f2", "split_condition": 36.6743507, "yes": 3, "no": 4, "missing": 4 , "children": [
      { "nodeid": 3, "depth": 2, "split": "f8", "split_condition": 1.62940443, "yes": 7, "no": 8, "missing": 8 , "children": [
        { "nodeid": 7, "leaf": -0.0937746242 }, 
        { "nodeid": 8, "leaf": 0.0333310813 }
      ]}, 
      { "nodeid": 4, "depth": 2, "split": "f4", "split_condition": 7, "yes": 9, "no": 10, "missing": 10 , "children": [
        { "nodeid": 9, "leaf": -0.0192784574 }, 
        { "nodeid": 10, "leaf": -0.143026873 }
      ]}
    ]}, 
    { "nodeid": 2, "depth": 1, "split": "f4", "split_condition": 0, "yes": 5, "no": 6, "missing": 6 , "children": [
      { "nodeid": 5, "leaf": -0.0154208634 }, 
      { "nodeid": 6, "leaf": -0.158516109 }
    ]}
  ]},
  { "nodeid": 0, "depth": 0, "split": "f2", "split_condition": 7.54492903, "yes": 1, "no": 2, "missing": 2 , "children": [
    { "nodeid": 1, "depth": 1, "split": "f7", "split_condition": 69.8927765, "yes": 3, "no": 4, "missing": 4 , "children": [
      { "nodeid": 3, "depth": 2, "split": "f7", "split_condition": 41.2310562, "yes": 7, "no": 8, "missing": 8 , "children": [
        { "nodeid": 7, "leaf": -0.0415582992 }, 
        { "nodeid": 8, "leaf": -0.175489262 }
      ]}, 
      { "nodeid": 4, "leaf": 0.0711102933 }
    ]}, 
    { "nodeid": 2, "depth": 1, "split": "f8", "split_condition": 2.55414724, "yes": 5, "no": 6, "missing": 6 , "children": [
      { "nodeid": 5, "leaf": 0.141101867 }, 
      { "nodeid": 6, "depth": 2, "split": "f4", "split_condition": -22, "yes": 9, "no": 10, "missing": 10 , "children": [
        { "nodeid": 9, "leaf": 0.0564931072 }, 
        { "nodeid": 10, "leaf": -0.0387151279 }
      ]}
    ]}
  ]},
  { "nodeid": 0, "depth": 0, "split": "f5", "split_condition": -39, "yes": 1, "no": 2, "missing": 2 , "children": [
    { "nodeid": 1, "depth": 1, "split": "f2", "split_condition": 19.7760773, "yes": 3, "no": 4, "missing": 4 , "children": [
      { "nodeid": 3, "depth": 2, "split": "f8", "split_condition": 6.63442707, "yes": 7, "no": 8, "missing": 8 , "children": [
        { "nodeid": 7, "leaf": 0.00731039187 }, 
        { "nodeid": 8, "leaf": 0.166722715 }
      ]}, 
      { "nodeid": 4, "depth": 2, "split": "f3", "split_condition": 30, "yes": 9, "no": 10, "missing": 10 , "children": [
        { "nodeid": 9, "leaf": -0.153727114 }, 
        { "nodeid": 10, "leaf": 0.057464458 }
      ]}
    ]}, 
    { "nodeid": 2, "depth": 1, "split": "f1", "split_condition": 158.316147, "yes": 5, "no": 6, "missing": 6 , "children": [
      { "nodeid": 5, "depth": 2, "split": "f28", "split_condition": 1, "yes": 11, "no": 12, "missing": 12 , "children": [
        { "nodeid": 11, "leaf": -0.0777108744 }, 
        { "nodeid": 12, "leaf": 0.00223796396 }
      ]}, 
      { "nodeid": 6, "leaf": -0.1346329 }
    ]}
  ]},
  { "nodeid": 0, "depth": 0, "split": "f1", "split_condition": 59.7745781, "yes": 1, "no": 2, "missing": 2 , "children": [
    { "nodeid": 1, "depth": 1, "split": "f4", "split_condition": 14, "yes": 3, "no": 4, "missing": 4 , "children": [
      { "nodeid": 3, "depth": 2, "split": "f4", "split_condition": 2, "yes": 7, "no": 8, "missing": 8 , "children": [
        { "nodeid": 7, "leaf": 0.0357347243 }, 
        { "nodeid": 8, "leaf": -0.0831099078 }
      ]}, 
      { "nodeid": 4, "leaf": 0.121494122 }
    ]}, 
    { "nodeid": 2, "depth": 1, "split": "f7", "split_condition": 97.8008194, "yes": 5, "no": 6, "missing": 6 , "children": [
      { "nodeid": 5, "depth": 2, "split": "f7", "split_condition": 78.1856766, "yes": 9, "no": 10, "missing": 10 , "children": [
        { "nodeid": 9, "leaf": -0.0189493448 }, 
        { "nodeid": 10, "leaf": 0.142256483 }
      ]}, 
      { "nodeid": 6, "leaf": -0.13789171 }
    ]}
  ]},
  { "nodeid": 0, "depth": 0, "split": "f6", "split_condition": -2, "yes": 1, "no": 2, "missing": 2 , "children": [
    { "nodeid": 1, "depth": 1, "split": "f7", "split_condition": 30.8868904, "yes": 3, "no": 4, "missing": 4 , "children": [
      { "nodeid": 3, "depth": 2, "split": "f8", "split_condition": 2.86798, "yes": 7, "no": 8, "missing": 8 , "children": [
        { "nodeid": 7, "leaf": -0.156822249 }, 
        { "nodeid": 8, "leaf": -0.0438228697 }
      ]}, 
      { "nodeid": 4, "depth": 2, "split": "f5", "split_condition": -9, "yes": 9, "no": 10, "missing": 10 , "children": [
        { "nodeid": 9, "leaf": -0.0486585945 }, 
        { "nodeid": 10, "leaf": 0.0727358982 }
      ]}
    ]}, 
    { "nodeid": 2, "depth": 1, "split": "f8", "split_condition": 2.55414724, "yes": 5, "no": 6, "missing": 6 , "children": [
      { "nodeid": 5, "leaf": 0.127643943 }, 
      { "nodeid": 6, "depth": 2, "split": "f5", "split_condition": -72, "yes": 11, "no": 12, "missing": 12 , "children": [
        { "nodeid": 11, "leaf": 0.0988268256 }, 
        { "nodeid": 12, "leaf": -0.0208392348 }
      ]}
    ]}
  ]},
  { "nodeid": 0, "depth": 0, "split": "f4", "split_condition": -36, "yes": 1, "no": 2, "missing": 2 , "children": [
    { "nodeid": 1, "leaf": 0.103073202 }, 
    { "nodeid": 2, "depth": 1, "split": "f3", "split_condition": 60, "yes": 3, "no": 4, "missing": 4 , "children": [
      { "nodeid": 3, "depth": 2, "split": "f3", "split_condition": 49, "yes": 5, "no": 6, "missing": 6 , "children": [
        { "nodeid": 5, "leaf": 0.00831346493 }, 
        { "nodeid": 6, "leaf": -0.11647781 }
      ]}, 
      { "nodeid": 4, "depth": 2, "split": "f4", "split_condition": -5, "yes": 7, "no": 8, "missing": 8 , "children": [
        { "nodeid": 7, "leaf": -0.0026971465 }, 
        { "nodeid": 8, "leaf": 0.101272523 }
      ]}
    ]}
  ]},
  { "nodeid": 0, "depth": 0, "split": "f13", "split_condition": 1, "yes": 1, "no": 2, "missing": 2 , "children": [
    { "nodeid": 1, "depth": 1, "split": "f6", "split_condition": -23, "yes": 3, "no": 4, "missing": 4 , "children": [
      { "nodeid": 3, "leaf": 0.0707160756 }, 
      { "nodeid": 4, "depth": 2, "split": "f5", "split_condition": -54, "yes": 5, "no": 6, "missing": 6 , "children": [
        { "nodeid": 5, "leaf": 0.0333872922 }, 
        { "nodeid": 6, "leaf": -0.0502315536 }
      ]}
    ]}, 
    { "nodeid": 2, "leaf": 0.115048632 }
  ]},
  { "nodeid": 0, "depth": 0, "split": "f4", "split_condition": -19, "yes": 1, "no": 2, "missing": 2 , "children": [
    { "nodeid": 1, "depth": 1, "split": "f8", "split_condition": 7.81539059, "yes": 3, "no": 4, "missing": 4 , "children": [
      { "nodeid": 3, "depth": 2, "split": "f8", "split_condition": 3.66666675, "yes": 7, "no": 8, "missing": 8 , "children": [
        { "nodeid": 7, "leaf": -0.0183058996 }, 
        { "nodeid": 8, "leaf": -0.238017425 }
      ]}, 
      { "nodeid": 4, "leaf": 0.0255403984 }
    ]}, 
    { "nodeid": 2, "depth": 1, "split": "f5", "split_condition": -77, "yes": 5, "no": 6, "missing": 6 , "children": [
      { "nodeid": 5, "leaf": -0.1299216 }, 
      { "nodeid": 6, "depth": 2, "split": "f1", "split_condition": 62.2012863, "yes": 9, "no": 10, "missing": 10 , "children": [
        { "nodeid": 9, "leaf": 0.077801615 }, 
        { "nodeid": 10, "leaf": -0.00166173792 }
      ]}
    ]}
  ]},
  { "nodeid": 0, "depth": 0, "split": "f3", "split_condition": 70, "yes": 1, "no": 2, "missing": 2 , "children": [
    { "nodeid": 1, "depth": 1, "split": "f3", "split_condition": 46, "yes": 3, "no": 4, "missing": 4 , "children": [
      { "nodeid": 3, "depth": 2, "split": "f5", "split_condition": 69, "yes": 5, "no": 6, "missing": 6 , "children": [
        { "nodeid": 5, "leaf": -0.00812310353 }, 
        { "nodeid": 6, "leaf": 0.0837733969 }
      ]}, 
      { "nodeid": 4, "depth": 2, "split": "f4", "split_condition": -13, "yes": 7, "no": 8, "missing": 8 , "children": [
        { "nodeid": 7, "leaf": -0.00115592836 }, 
        { "nodeid": 8, "leaf": -0.109937862 }
      ]}
    ]}, 
    { "nodeid": 2, "leaf": 0.0947586 }
  ]}
]